{"ip":0,"fr":60,"v":"5.1.20","assets":[],"layers":[{"ty":4,"nm":"Layer1","ip":0,"st":0,"ind":3,"hix":3,"ks":{"o":{"a":0,"k":100},"or":{"a":0,"k":[0,0,0]},"a":{"a":0,"k":[192,70.5,0]},"p":{"s":true,"x":{"a":0,"k":274.5},"y":{"a":1,"k":[{"t":0,"s":[129.5],"e":[139.5],"i":{"x":[0.515],"y":[0.955]},"o":{"x":[0.455],"y":[0.03]}},{"t":60,"s":[139.5],"e":[129.5],"i":{"x":[0.515],"y":[0.955]},"o":{"x":[0.455],"y":[0.03]}},{"t":80}]}},"rx":{"a":0,"k":0},"ry":{"a":0,"k":0},"rz":{"a":0,"k":0},"s":{"a":0,"k":[100,100,100]}},"shapes":[{"ty":"gr","nm":"Layer1 shape group","it":[{"ty":"sh","ks":{"a":0,"k":{"c":true,"v":[[383.546069,72.0287141],[381.192787,76.6568651],[375.52411,80.6380702],[369.146848,82.8234057],[310.938895,102.130087],[293.386798,107.972073],[223.30626,131.320543],[203.221027,138.012862],[197.459172,139.505814],[188.392756,139.791422],[179.423851,137.614741],[133.446026,122.293593],[91.3383289,108.285809],[36.3092553,89.9484646],[10.1197934,81.2633791],[8.34508142,80.6337428],[0.554984168,72.7275887],[0.0890951813,71.3969142],[-0.253279051,68.1903131],[0.0912621068,65.098388],[0.505144881,63.914845],[4.21925523,58.3671222],[9.54339123,55.448293],[36.4999447,46.5143821],[114.227563,20.7187693],[116.949222,20.0566775],[117.35227,19.8900728],[119.042472,19.113305],[141.361805,11.7112927],[162.807866,4.61219807],[177.109575,1.15028056],[181.92665,0.52064431],[188.17823,0.0165025731],[202.440934,0.57690047],[207.87775,1.32121273],[222.736359,5.17692336],[255.781973,16.1403834],[315.50244,35.9403878],[370.141467,54.0548712],[375.05172,55.7014457],[381.151616,59.8124727],[383.572072,64.6029011],[383.734591,68.3590816]],"i":[[0.17985400000003438,-0.8957711000000046],[0.6045730000000162,-0.7334938000000051],[2.3251109999999926,-0.9087533000000008],[2.1322550000000433,-0.7075293999999985],[19.40265099999999,-6.431954400000009],[5.846364999999992,-1.9516559999999998],[0,0],[6.694355999999999,-2.2300520000000006],[1.9740700000000118,-0.2596439999999802],[3.053198000000009,0.34835499999999797],[2.9275169999999946,0.9758279999999786],[15.325941999999998,5.106328000000005],[14.037343100000001,4.664934000000002],[18.339413,6.114611800000006],[8.7341545,2.883488800000009],[0.5850698899999998,0.22935209999999984],[1.428726232,3.782144900000006],[0.0801762447,0.28993560000000684],[-0.04015671300000001,1.0797198000000066],[-0.26698358580000003,1.0080253],[-0.15818556299999997,0.4565403999999944],[-1.6970006199999998,1.4980037999999993],[-1.9632345199999994,0.6469457999999975],[-8.979739300000002,2.9916736999999998],[-25.903427500000006,8.598537599999997],[-0.988118,-0.1060212000000007],[-0.10676899999999989,0.10691230000000118],[-0.5872370000000018,0.1947328999999982],[-7.438333,2.4608463],[-7.150853999999981,2.3627586900000006],[-4.8556370000000015,0.7534327900000002],[-1.6100250000000074,0.16444108199999996],[-2.086749000000026,0.051928762700000006],[-4.728230999999994,-0.6620917237],[-1.8007149999999967,-0.31157257000000005],[-4.8497899999999845,-1.6529390899999998],[-11.02242799999999,-3.635013400000002],[0,0],[0,0],[-1.6230269999999791,-0.5863622999999976],[-1.5255159999999819,-1.8564532000000042],[-0.47022299999997585,-2.4103600999999983],[0.01083499999998594,-1.8910724999999928]],"o":[[-0.478890999999976,2.319484799999998],[-1.4301700000000324,1.7612504999999885],[-2.091083000000026,0.8157144000000045],[-19.40265099999999,6.439166499999999],[-5.855032999999992,1.9430009999999953],[0,0],[-6.69580000000002,2.2314940000000263],[-1.8852249999999913,0.6231449999999938],[-3.0055250000000058,0.3937930000000165],[-3.094369999999998,-0.3526830000000132],[-15.325942000000026,-5.107770000000016],[-14.034454999999994,-4.673589000000007],[-18.346636099999998,-6.110284000000007],[-8.725486799999995,-2.9065681999999953],[-0.5959045000000014,-0.1968965999999881],[-3.7646719399999995,-1.4886245000000002],[-0.23402795600000004,-0.6166539999999969],[-0.2672299013,-1.046997300000001],[-0.038547335000000016,-1.0419701000000003],[0.1170139782,-0.4197575000000029],[0.737537529,-2.1384370999999973],[1.54718482,-1.3890943999999976],[8.991296270000001,-2.9642668999999984],[25.914984599999997,-8.5985376],[0.8819390000000027,-0.2920993000000003],[0.1512079999999969,0.0002743000000009488],[0.46372199999999,-0.48466849999999795],[7.441221999999996,-2.4738284999999998],[7.1465200000000095,-2.36997107],[4.6621290000000215,-1.5504681199999997],[1.5991909999999905,-0.24449792699999995],[2.080249000000009,-0.21636984399999998],[4.767236999999994,-0.1190034141],[1.811550000000011,0.255316416],[5.042125999999996,0.91394749],[11.007981000000001,3.6739599500000004],[0,0],[0,0],[1.6381960000000504,0.5430883000000009],[2.5158010000000104,0.9065895999999967],[0.6175739999999905,0.7529670999999993],[0.1776879999999892,0.9195717999999999],[0.0043429999999489155,1.8499622000000073]]}}},{"ty":"sh","ks":{"a":0,"k":{"c":true,"v":[[248.698293,23.2957341],[248.332083,23.1507663],[248.197734,23.3822821],[248.516272,23.5986519]],"i":[[0,0],[0.12835699999999406,0.03067659999999961],[-0.01950299999998606,-0.015145900000000267],[-0.11419999999998254,-0.059583700000001016]],"o":[[-0.11453900000000772,-0.0654761999999991],[-0.039005000000003065,0],[0.09744399999999587,0.08417769999999791],[0,0]]}}},{"ty":"sh","ks":{"a":0,"k":{"c":true,"v":[[262.664128,23.5748512],[262.863485,23.7284738],[262.945829,23.6137978],[262.748638,23.4558478]],"i":[[0,0],[0,0],[-0.02472099999999955,0.0401063999999991],[0.06904999999994743,0.04837969999999814]],"o":[[0,0],[0.03010799999998426,-0.036249600000001436],[-0.06227599999999711,-0.0568117000000008],[0,0]]}}},{"ty":"sh","ks":{"a":0,"k":{"c":true,"v":[[257.732206,23.5467231],[257.706203,23.7349649],[257.782045,23.6505807],[257.732206,23.5467231]],"i":[[0,0],[0,0],[-0.004333999999971638,0.030291699999999366],[0.019501999999988584,0.034619199999998074]],"o":[[0,0],[0.028169999999988704,-0.02812809999999999],[0.004334000000028482,-0.030291800000000535],[0,0]]}}},{"ty":"st","o":{"a":0,"k":0},"w":{"a":0,"k":0},"c":{"a":0,"k":[0,0,0,0]},"lc":3,"lj":1,"ml":1},{"ty":"gf","o":{"a":0,"k":100},"r":1,"g":{"p":2,"k":{"a":0,"k":[0,0.24705882352941178,0.6627450980392157,0.9607843137254902,1,0,0.47058823529411764,0.7568627450980392]}},"t":1,"s":{"a":0,"k":[191.26269709286572,57.850898353026615]},"e":{"a":0,"k":[192.0509125017935,72.9406642493918]}},{"ty":"tr","o":{"a":0,"k":100},"a":{"a":0,"k":[0,0]},"s":{"a":0,"k":[100,100]},"p":{"a":0,"k":[0.261,0.04]},"r":{"a":0,"k":0}}]}],"op":120},{"ty":4,"nm":"Layer2","ip":0,"st":0,"ind":2,"hix":2,"ks":{"o":{"a":0,"k":100},"or":{"a":0,"k":[0,0,0]},"a":{"a":0,"k":[192,70.5,0]},"p":{"s":true,"x":{"a":0,"k":275},"y":{"a":1,"k":[{"t":0,"s":[199.99999999999997],"e":[210],"i":{"x":[0.515],"y":[0.955]},"o":{"x":[0.455],"y":[0.03]}},{"t":40,"s":[210],"e":[200],"i":{"x":[0.515],"y":[0.955]},"o":{"x":[0.455],"y":[0.03]}},{"t":100}]}},"rx":{"a":0,"k":0},"ry":{"a":0,"k":0},"rz":{"a":0,"k":0},"s":{"a":0,"k":[100,100,100]}},"shapes":[{"ty":"gr","nm":"Layer2 shape group","it":[{"ty":"sh","ks":{"a":0,"k":{"c":true,"v":[[383.546069,72.9227036],[381.192787,77.5508546],[375.52411,81.5320597],[369.146848,83.7173951],[310.938895,103.024076],[293.386798,108.866062],[223.30626,132.214532],[203.221027,138.906851],[197.459172,140.399803],[188.392756,140.685411],[179.423851,138.508731],[133.446026,123.187582],[91.3383289,109.179798],[36.3092553,90.8424541],[10.1197934,82.1573686],[8.34508142,81.5277323],[0.554984168,73.6215782],[0.0890951813,72.2909037],[-0.253279051,69.0843026],[0.0912621068,65.9923775],[0.505144881,64.8088345],[4.21925523,59.2611116],[9.54339123,56.3422824],[36.4999447,47.4083716],[114.227563,21.6127587],[116.949222,20.950667],[117.35227,20.7840622],[119.042472,20.0072945],[141.361805,12.6052821],[162.807866,5.50618754],[177.109575,2.04427003],[181.92665,1.41463378],[188.17823,0.910492043],[202.440934,1.47088994],[207.87775,2.2152022],[222.736359,6.07091283],[255.781973,17.0343728],[315.50244,36.8343773],[370.141467,54.9488606],[375.05172,56.5954352],[381.151616,60.7064622],[383.572072,65.4968906],[383.734591,69.2530711]],"i":[[0.17985400000003438,-0.8957711000000046],[0.6045730000000162,-0.7334937999999909],[2.3251109999999926,-0.9087533000000008],[2.1322550000000433,-0.7075293000000045],[19.40265099999999,-6.431953899999996],[5.846364999999992,-1.9516559999999998],[0,0],[6.694355999999999,-2.2300520000000006],[1.9740700000000118,-0.2596439999999802],[3.053198000000009,0.34835600000002387],[2.9275169999999946,0.9758279999999786],[15.325941999999998,5.106328000000005],[14.037343100000001,4.664933999999988],[18.339413,6.114611800000006],[8.7341545,2.883488799999995],[0.5850698899999998,0.22935209999999984],[1.428726232,3.7821448999999916],[0.0801762447,0.28993559999999263],[-0.04015671300000001,1.0797197999999923],[-0.26698358580000003,1.0080253],[-0.15818556299999997,0.45654030000000034],[-1.6970006199999998,1.4980039000000005],[-1.9632345199999994,0.6469458999999986],[-8.979739300000002,2.9916736999999998],[-25.903427500000006,8.598537699999998],[-0.988118,-0.1060212000000007],[-0.10676899999999989,0.1069123999999988],[-0.5872370000000018,0.1947328999999982],[-7.438333,2.4608463999999994],[-7.150853999999981,2.3627586899999997],[-4.8556370000000015,0.7534327900000002],[-1.6100250000000074,0.16444108000000002],[-2.086749000000026,0.051928763000000044],[-4.728230999999994,-0.6620917239999999],[-1.8007149999999967,-0.3115725699999998],[-4.8497899999999845,-1.6529390900000003],[-11.02242799999999,-3.6350133000000007],[0,0],[0,0],[-1.6230269999999791,-0.5863622999999976],[-1.5255159999999819,-1.8564532999999983],[-0.47022299999997585,-2.4103600999999983],[0.01083499999998594,-1.8910724999999928]],"o":[[-0.478890999999976,2.3194846999999896],[-1.4301700000000324,1.7612505000000027],[-2.091083000000026,0.8157142999999962],[-19.40265099999999,6.439166599999993],[-5.855032999999992,1.943002000000007],[0,0],[-6.69580000000002,2.231493999999998],[-1.8852249999999913,0.6231450000000223],[-3.0055250000000058,0.3937930000000165],[-3.094369999999998,-0.3526819999999873],[-15.325942000000026,-5.107771000000014],[-14.034454999999994,-4.673589000000007],[-18.346636099999998,-6.110284000000007],[-8.725486799999995,-2.9065681999999953],[-0.5959045000000014,-0.1968966000000023],[-3.7646719399999995,-1.4886245000000002],[-0.23402795600000004,-0.6166539999999969],[-0.2672299013,-1.046997300000001],[-0.038547335000000016,-1.0419701000000003],[0.1170139782,-0.4197575000000029],[0.737537529,-2.1384371000000044],[1.54718482,-1.3890943999999976],[8.991296270000001,-2.9642668000000043],[25.914984599999997,-8.5985376],[0.8819390000000027,-0.2920991999999991],[0.1512079999999969,0.0002743000000009488],[0.46372199999999,-0.48466840000000033],[7.441221999999996,-2.473828600000001],[7.1465200000000095,-2.3699709999999996],[4.6621290000000215,-1.5504681200000001],[1.5991909999999905,-0.24449792999999986],[2.080249000000009,-0.21636984000000004],[4.767236999999994,-0.11900341399999992],[1.811550000000011,0.25531642],[5.042125999999996,0.9139474900000004],[11.007981000000001,3.6739599499999995],[0,0],[0,0],[1.6381960000000504,0.5430883999999949],[2.5158010000000104,0.9065896000000038],[0.6175739999999905,0.7529670999999993],[0.1776879999999892,0.9195717999999999],[0.0043429999999489155,1.849962099999999]]}}},{"ty":"sh","ks":{"a":0,"k":{"c":true,"v":[[248.698293,24.1897236],[248.332083,24.0447558],[248.197734,24.2762715],[248.516272,24.4926414]],"i":[[0,0],[0.12835699999999406,0.03067659999999961],[-0.01950299999998606,-0.015145900000000267],[-0.11419999999998254,-0.059583700000001016]],"o":[[-0.11453900000000772,-0.06547630000000026],[-0.039005000000003065,0],[0.09744399999999587,0.08417779999999908],[0,0]]}}},{"ty":"sh","ks":{"a":0,"k":{"c":true,"v":[[262.664128,24.4688407],[262.863485,24.6224633],[262.945829,24.5077873],[262.748638,24.3498373]],"i":[[0,0],[0,0],[-0.02472099999999955,0.0401063999999991],[0.06904999999994743,0.04837969999999814]],"o":[[0,0],[0.03010799999998426,-0.03624969999999905],[-0.06227599999999711,-0.0568117000000008],[0,0]]}}},{"ty":"sh","ks":{"a":0,"k":{"c":true,"v":[[257.732206,24.4407126],[257.706203,24.6289544],[257.782045,24.5445701],[257.732206,24.4407126]],"i":[[0,0],[0,0],[-0.004333999999971638,0.030291799999996982],[0.019501999999988584,0.034619199999998074]],"o":[[0,0],[0.028169999999988704,-0.02812809999999999],[0.004334000000028482,-0.03029170000000292],[0,0]]}}},{"ty":"st","o":{"a":0,"k":0},"w":{"a":0,"k":0},"c":{"a":0,"k":[0,0,0,0]},"lc":3,"lj":1,"ml":1},{"ty":"gf","o":{"a":0,"k":100},"r":1,"g":{"p":2,"k":{"a":0,"k":[0,0.3843137254901961,0,0.9176470588235294,1,0.2235294117647059,0.00784313725490196,0.6392156862745098]}},"t":1,"s":{"a":0,"k":[191.26269709286572,58.2208643067868]},"e":{"a":0,"k":[192.0509125017935,73.40713172328049]}},{"ty":"tr","o":{"a":0,"k":100},"a":{"a":0,"k":[0,0]},"s":{"a":0,"k":[100,100]},"p":{"a":0,"k":[0.261,0.146]},"r":{"a":0,"k":0}}]}],"op":120},{"ty":4,"nm":"Layer3","ip":0,"st":0,"ind":1,"hix":1,"ks":{"o":{"a":0,"k":100},"or":{"a":0,"k":[0,0,0]},"a":{"a":0,"k":[192,70.5,0]},"p":{"s":true,"x":{"a":0,"k":274},"y":{"a":1,"k":[{"t":0,"s":[270.5],"e":[280.5],"i":{"x":[0.515],"y":[0.955]},"o":{"x":[0.455],"y":[0.03]}},{"t":20,"s":[280.5],"e":[270.5],"i":{"x":[0.515],"y":[0.955]},"o":{"x":[0.455],"y":[0.03]}},{"t":120}]}},"rx":{"a":0,"k":0},"ry":{"a":0,"k":0},"rz":{"a":0,"k":0},"s":{"a":0,"k":[100,100,100]}},"shapes":[{"ty":"gr","nm":"Layer3 shape group","it":[{"ty":"sh","ks":{"a":0,"k":{"c":true,"v":[[383.546069,72.0330697],[381.192787,76.6612206],[375.52411,80.6424258],[369.146848,82.8277612],[310.938895,102.134442],[293.386798,107.976428],[223.30626,131.324898],[203.221027,138.017217],[197.459172,139.510169],[188.392756,139.795777],[179.423851,137.619097],[133.446026,122.297948],[91.3383289,108.290164],[36.3092553,89.9528202],[10.1197934,81.2677346],[8.34508142,80.6380984],[0.554984168,72.7319443],[0.0890951813,71.4012697],[-0.253279051,68.1946686],[0.0912621068,65.1027435],[0.505144881,63.9192005],[4.21925523,58.3714777],[9.54339123,55.4526485],[36.4999447,46.5187376],[114.227563,20.7231248],[116.949222,20.0610331],[117.35227,19.8944283],[119.042472,19.1176605],[141.361805,11.7156482],[162.807866,4.61655358],[177.109575,1.15463607],[181.92665,0.524999826],[188.17823,0.0208580886],[202.440934,0.581255985],[207.87775,1.32556825],[222.736359,5.18127887],[255.781973,16.1447389],[315.50244,35.9447433],[370.141467,54.0592267],[375.05172,55.7058012],[381.151616,59.8168282],[383.572072,64.6072566],[383.734591,68.3634371]],"i":[[0.17985400000003438,-0.8957711999999987],[0.6045730000000162,-0.7334936999999968],[2.3251109999999926,-0.9087533999999948],[2.1322550000000433,-0.7075293999999985],[19.40265099999999,-6.431953800000002],[5.846364999999992,-1.9516559999999998],[0,0],[6.694355999999999,-2.2300509999999747],[1.9740700000000118,-0.2596439999999802],[3.053198000000009,0.34835600000002387],[2.9275169999999946,0.9758279999999786],[15.325941999999998,5.106328999999988],[14.037343100000001,4.664934000000002],[18.339413,6.114611799999992],[8.7341545,2.883488800000009],[0.5850698899999998,0.22935199999999156],[1.428726232,3.7821448000000117],[0.0801762447,0.28993559999999263],[-0.04015671300000001,1.0797198000000066],[-0.26698358580000003,1.0080253],[-0.15818556299999997,0.4565403999999944],[-1.6970006199999998,1.4980039000000005],[-1.9632345199999994,0.6469457999999975],[-8.979739300000002,2.9916736999999998],[-25.903427500000006,8.5985376],[-0.988118,-0.10602129999999832],[-0.10676899999999989,0.10691229999999763],[-0.5872370000000018,0.19473290000000176],[-7.438333,2.4608463],[-7.150853999999981,2.3627587000000005],[-4.8556370000000015,0.7534327999999999],[-1.6100250000000074,0.1644410810000001],[-2.086749000000026,0.05192876269999999],[-4.728230999999994,-0.6620917232],[-1.8007149999999967,-0.31157258],[-4.8497899999999845,-1.65293908],[-11.02242799999999,-3.6350134],[0,0],[0,0],[-1.6230269999999791,-0.5863623000000047],[-1.5255159999999819,-1.8564532000000042],[-0.47022299999997585,-2.4103600999999983],[0.01083499999998594,-1.8910723999999988]],"o":[[-0.478890999999976,2.319484700000004],[-1.4301700000000324,1.761250600000011],[-2.091083000000026,0.8157142999999962],[-19.40265099999999,6.439166600000007],[-5.855032999999992,1.9430019999999928],[0,0],[-6.69580000000002,2.231493999999998],[-1.8852249999999913,0.6231460000000197],[-3.0055250000000058,0.3937930000000165],[-3.094369999999998,-0.3526819999999873],[-15.325942000000026,-5.107771000000014],[-14.034454999999994,-4.673588000000009],[-18.346636099999998,-6.110284000000007],[-8.725486799999995,-2.9065683000000035],[-0.5959045000000014,-0.19689649999999403],[-3.7646719399999995,-1.4886246000000085],[-0.23402795600000004,-0.616654099999991],[-0.2672299013,-1.046997300000001],[-0.038547335000000016,-1.0419700000000063],[0.1170139782,-0.4197575000000029],[0.737537529,-2.1384370000000033],[1.54718482,-1.3890943999999976],[8.991296270000001,-2.9642669000000055],[25.914984599999997,-8.5985376],[0.8819390000000027,-0.2920993000000003],[0.1512079999999969,0.0002743000000009488],[0.46372199999999,-0.4846685000000015],[7.441221999999996,-2.4738284999999998],[7.1465200000000095,-2.369971060000001],[4.6621290000000215,-1.5504681099999997],[1.5991909999999905,-0.244497921],[2.080249000000009,-0.21636984399999992],[4.767236999999994,-0.1190034143],[1.811550000000011,0.2553164170000001],[5.042125999999996,0.91394749],[11.007981000000001,3.6739599599999995],[0,0],[0,0],[1.6381960000000504,0.5430882999999938],[2.5158010000000104,0.9065896999999978],[0.6175739999999905,0.7529670999999993],[0.1776879999999892,0.9195717999999999],[0.0043429999999489155,1.8499622000000073]]}}},{"ty":"sh","ks":{"a":0,"k":{"c":true,"v":[[248.698293,23.3000896],[248.332083,23.1551218],[248.197734,23.3866376],[248.516272,23.6030074]],"i":[[0,0],[0.12835699999999406,0.03067659999999961],[-0.01950299999998606,-0.015145900000000267],[-0.11419999999998254,-0.059583699999997464]],"o":[[-0.11453900000000772,-0.0654761999999991],[-0.039005000000003065,0],[0.09744399999999587,0.08417770000000147],[0,0]]}}},{"ty":"sh","ks":{"a":0,"k":{"c":true,"v":[[262.664128,23.5792067],[262.863485,23.7328293],[262.945829,23.6181533],[262.748638,23.4602033]],"i":[[0,0],[0,0],[-0.02472099999999955,0.0401063999999991],[0.06904999999994743,0.04837970000000169]],"o":[[0,0],[0.03010799999998426,-0.036249599999997884],[-0.06227599999999711,-0.0568117000000008],[0,0]]}}},{"ty":"sh","ks":{"a":0,"k":{"c":true,"v":[[257.732206,23.5510787],[257.706203,23.7393204],[257.782045,23.6549362],[257.732206,23.5510787]],"i":[[0,0],[0,0],[-0.004333999999971638,0.030291799999996982],[0.019501999999988584,0.034619099999996905]],"o":[[0,0],[0.028169999999988704,-0.02812809999999999],[0.004334000000028482,-0.030291800000000535],[0,0]]}}},{"ty":"st","o":{"a":0,"k":0},"w":{"a":0,"k":0},"c":{"a":0,"k":[0,0,0,0]},"lc":3,"lj":1,"ml":1},{"ty":"gf","o":{"a":0,"k":100},"r":1,"g":{"p":2,"k":{"a":0,"k":[0,1,0.5764705882352941,0.11764705882352941,1,0.8980392156862745,0.41568627450980394,0.0196078431372549]}},"t":1,"s":{"a":0,"k":[191.26269709286572,57.85270061427212]},"e":{"a":0,"k":[192.0509125017935,72.94293661051569]}},{"ty":"tr","o":{"a":0,"k":100},"a":{"a":0,"k":[0,0]},"s":{"a":0,"k":[100,100]},"p":{"a":0,"k":[0.261,0.036]},"r":{"a":0,"k":0}}]}],"op":120}],"op":120,"w":550,"h":400}